{
  "models": {
    "global": {
      "mean": [
        0.35,
        0.5,
        -2.763072110092717,
        7.062911762835957,
        0.0,
        4.211509659088761,
        2.4493948598857687,
        4.859436901681194,
        0.7150734028456502,
        0.0034500000000000004,
        0.3497,
        0.35315000000000013,
        0.41059999999999997,
        0.0,
        0.0,
        0.0,
        0.0,
        1.0,
        1.0,
        0.0,
        1.0,
        1.0,
        0.0,
        0.0,
        47.9,
        894.05,
        0.02257030305887417,
        0.025239426080857486,
        -0.03769756827524287,
        0.07200923739879182,
        0.22989509563712957,
        -0.0695008825014005,
        -0.25732018201662943,
        0.05875927543466325,
        0.08830068146955808,
        -0.11010785986768683,
        -0.042366833633789236,
        -0.0070622676998701615,
        0.08249271302175154,
        0.001412447545225705,
        -0.024463612757052413,
        -0.05196295993933969,
        0.11100941795492263,
        -0.23738182534961944,
        0.021482965274202417,
        -0.20369998627845357,
        -0.035261373049184266,
        -0.06654073843386837,
        -0.04594819561472875,
        -0.03197819865410358,
        -0.14348572747041305,
        -0.364116134978883,
        -0.1142508626169694,
        -0.008288936200363337,
        0.2401470767837825,
        0.217011168731127,
        -0.28416338918928985,
        0.012526319042906377
      ],
      "scale": [
        0.47696960070847283,
        1.0,
        8.786009340531113,
        2.289491712730691,
        1.0,
        1.0904946974715988,
        2.4867775444322193,
        1.1147210709749762,
        0.4789527138328986,
        0.00708148995621684,
        0.4764559895730139,
        0.4747104670217416,
        0.4531422955319885,
        1.0,
        1.0,
        1.0,
        1.0,
        1.0,
        1.0,
        1.0,
        1.0,
        1.0,
        1.0,
        1.0,
        19.575239462136857,
        359.2204719945677,
        0.07265295437666476,
        0.07383327525583608,
        0.08795826205406865,
        0.0662423483590036,
        0.12169997622049177,
        0.07105645794993774,
        0.05701739163728879,
        0.1662504132994886,
        0.12848362954336862,
        0.10010466633329525,
        0.16187036405748265,
        0.11288747803871661,
        0.13300064251255295,
        0.11496295826177474,
        0.14908308039951101,
        0.06145128756389636,
        0.0834686461233251,
        0.10889920046126898,
        0.09335906629012569,
        0.12069517706819724,
        0.046557744086383565,
        0.06314530821530683,
        0.11702526680623089,
        0.09841443654918787,
        0.11060131540664023,
        0.14566048991878786,
        0.16709883885001584,
        0.05534390570562725,
        0.11281182381104111,
        0.08318178214113427,
        0.08856332824324877,
        0.045585525327611974
      ],
      "weights": [
        0.7976624234422444,
        0.0,
        0.7976624234422444,
        0.07528571325223991,
        0.0,
        -0.02943223281566798,
        0.014280943846598773,
        0.03052794633526104,
        -0.07565373979521363,
        -0.12538061724100302,
        0.7976749166282373,
        0.7987376232861033,
        0.7558531808374065,
        0.0,
        0.0,
        0.0,
        0.0,
        0.0,
        0.0,
        0.0,
        0.0,
        0.0,
        0.0,
        0.0,
        -0.005346031775902846,
        -0.09063994495213383,
        -0.14128160252618446,
        0.030398796937398134,
        0.12037103799415842,
        -0.24162181226480287,
        0.05300765893327394,
        -0.13253188865506166,
        0.02980422976135756,
        0.34495173298239495,
        0.08804885979917895,
        -0.09915150321833509,
        -0.026923790258498562,
        0.05457559555720412,
        0.09515232030329637,
        -0.15995058676582818,
        -0.372523910264865,
        -0.3285076354491419,
        0.12322354978403392,
        0.049965049960282566,
        -0.23113749303346073,
        0.03244323586041777,
        -0.0016479591969748332,
        0.05479711447455976,
        -0.05513048707057744,
        0.2820740367398261,
        -0.27510222263544,
        0.12977063580779477,
        0.10727161160638576,
        -0.013643092183407006,
        0.15080382323929253,
        -0.016320374744970643,
        0.14094606674600585,
        -0.0040728578928686055
      ],
      "bias": -0.557114887441803
    }
  },
  "feature_count": 58
}